t = 0
N_ID / N_ID , 0 , 1 , 2 , 3 , 4 , 5 , 6 , 7 , 8 , 9
0 , -0.116398 , -0.786767 , -0.924192 , 0.222327 , 0.30076 , 0.503189 , 0.739952 , 0.692434 , -0.776269 , 0.636036
1 , 0.481185 , -0.897397 , 0.272011 , 0.968535 , 0.831874 , 0.446974 , -0.808863 , 0.399426 , -0.565355 , -0.838618
2 , 0.211432 , 0.24192 , 0.104465 , 0.464278 , -0.551958 , 0.36784 , 0.247536 , 0.134678 , -0.619251 , 0.666677
3 , 0.403943 , 0.83993 , 0.00698874 , 0.787469 , 0.183355 , -0.965209 , -0.915098 , 0.632954 , -0.682455 , 0.680349
4 , -0.257118 , 0.574358 , 0.312113 , -0.721885 , -0.168737 , 0.855373 , 0.510025 , 0.286447 , 0.510025 , 0.154637
5 , 0.181188 , 0.254433 , -0.455489 , 0.77517 , 0.211219 , 0.462203 , 0.766076 , 0.429121 , -0.89526 , 0.241951
6 , 0.836451 , 0.0875576 , -0.62682 , 0.94818 , -0.111179 , 0.863094 , -0.690298 , 0.688742 , 0.964293 , 0.394299
7 , 0.500504 , 0.980193 , 0.634846 , 0.701346 , -0.133183 , 0.545488 , 0.313547 , 0.980682 , 0.490677 , 0.972961
8 , -0.973022 , -0.307962 , 0.945616 , -0.455489 , -0.0361034 , -0.718131 , 0.807154 , 0.328532 , 0.476058 , -0.631062
9 , 0.453322 , 0.625599 , 0.441694 , 0.0914945 , 0.472823 , 0.370067 , 0.00195318 , 0.792718 , -0.660573 , 0.822321

t = 1
N_ID / N_ID , 0 , 1 , 2 , 3 , 4 , 5 , 6 , 7 , 8 , 9
0 , -0.116398 , -0.629414 , -0.739354 , 0.177862 , 0.30076 , 0.503189 , 0.591961 , 0.553948 , -0.776269 , 0.508829
1 , 0.481185 , -0.917917 , 0.417609 , 0.974828 , 0.831874 , 0.446974 , -0.84709 , 0.519541 , -0.565355 , -0.870894
2 , 0.211432 , 0.393536 , 0.283572 , 0.571422 , -0.551958 , 0.36784 , 0.398028 , 0.307743 , -0.619251 , 0.733341
3 , 0.403943 , 0.871944 , 0.205591 , 0.829975 , 0.183355 , -0.965209 , -0.932078 , 0.706363 , -0.682455 , 0.744279
4 , -0.257118 , 0.459487 , 0.24969 , -0.577508 , -0.168737 , 0.855373 , 0.40802 , 0.229157 , 0.510025 , 0.12371
5 , 0.181188 , 0.203546 , -0.364391 , 0.620136 , 0.211219 , 0.462203 , 0.612861 , 0.343297 , -0.89526 , 0.193561
6 , 0.836451 , 0.270046 , -0.701456 , 0.958544 , -0.111179 , 0.863094 , -0.752239 , 0.750993 , 0.964293 , 0.515439
7 , 0.500504 , 0.984155 , 0.707877 , 0.761077 , -0.133183 , 0.545488 , 0.450838 , 0.984545 , 0.490677 , 0.978368
8 , -0.973022 , -0.24637 , 0.756493 , -0.364391 , -0.0361034 , -0.718131 , 0.645723 , 0.262825 , 0.476058 , -0.504849
9 , 0.453322 , 0.700479 , 0.553356 , 0.273196 , 0.472823 , 0.370067 , 0.201563 , 0.834175 , -0.660573 , 0.857857

t = 2
N_ID / N_ID , 0 , 1 , 2 , 3 , 4 , 5 , 6 , 7 , 8 , 9
0 , -0.293118 , -0.703531 , -0.739354 , 0.34229 , 0.440608 , 0.503189 , 0.673569 , 0.553948 , -0.821015 , 0.607063
1 , 0.584948 , -0.934334 , 0.417609 , 0.979863 , 0.865499 , 0.446974 , -0.877672 , 0.519541 , -0.652284 , -0.896716
2 , 0.169146 , 0.314829 , 0.283572 , 0.457138 , -0.441566 , 0.36784 , 0.318423 , 0.307743 , -0.495401 , 0.586673
3 , 0.523154 , 0.897555 , 0.205591 , 0.86398 , 0.346684 , -0.965209 , -0.945662 , 0.706363 , -0.745964 , 0.795423
4 , -0.405695 , 0.567589 , 0.24969 , -0.662006 , -0.334989 , 0.855373 , 0.526416 , 0.229157 , 0.60802 , 0.298968
5 , 0.144951 , 0.162837 , -0.364391 , 0.496109 , 0.168975 , 0.462203 , 0.490288 , 0.343297 , -0.716208 , 0.154848
6 , 0.869161 , 0.416037 , -0.701456 , 0.966835 , -0.288943 , 0.863094 , -0.801791 , 0.750993 , 0.971435 , 0.612351
7 , 0.400403 , 0.787324 , 0.707877 , 0.608861 , -0.106546 , 0.545488 , 0.36067 , 0.984545 , 0.392541 , 0.782695
8 , -0.978417 , -0.397096 , 0.756493 , -0.491513 , -0.228883 , -0.718131 , 0.716578 , 0.262825 , 0.580847 , -0.60388
9 , 0.562658 , 0.760383 , 0.553356 , 0.418556 , 0.578259 , 0.370067 , 0.36125 , 0.834175 , -0.728459 , 0.886286

t = 3
N_ID / N_ID , 0 , 1 , 2 , 3 , 4 , 5 , 6 , 7 , 8 , 9
0 , -0.434494 , -0.762825 , -0.791483 , 0.34229 , 0.440608 , 0.503189 , 0.673569 , 0.643158 , -0.856812 , 0.685651
1 , 0.667959 , -0.947467 , 0.534087 , 0.979863 , 0.865499 , 0.446974 , -0.877672 , 0.615633 , -0.721827 , -0.917372
2 , 0.335317 , 0.451863 , 0.426858 , 0.457138 , -0.441566 , 0.36784 , 0.318423 , 0.446194 , -0.596321 , 0.669339
3 , 0.418523 , 0.718044 , 0.164473 , 0.86398 , 0.346684 , -0.965209 , -0.945662 , 0.56509 , -0.596771 , 0.636339
4 , -0.324556 , 0.454071 , 0.199752 , -0.662006 , -0.334989 , 0.855373 , 0.526416 , 0.183326 , 0.486416 , 0.239174
5 , 0.115961 , 0.13027 , -0.291513 , 0.496109 , 0.168975 , 0.462203 , 0.490288 , 0.274637 , -0.572967 , 0.123879
6 , 0.695329 , 0.332829 , -0.561165 , 0.966835 , -0.288943 , 0.863094 , -0.801791 , 0.600795 , 0.777148 , 0.489881
7 , 0.520322 , 0.829859 , 0.766301 , 0.608861 , -0.106546 , 0.545488 , 0.36067 , 0.987636 , 0.514033 , 0.826156
8 , -0.982734 , -0.517677 , 0.805194 , -0.491513 , -0.228883 , -0.718131 , 0.716578 , 0.41026 , 0.664677 , -0.683104
9 , 0.650126 , 0.808307 , 0.642684 , 0.418556 , 0.578259 , 0.370067 , 0.36125 , 0.86734 , -0.782767 , 0.909028

t = 4
N_ID / N_ID , 0 , 1 , 2 , 3 , 4 , 5 , 6 , 7 , 8 , 9
0 , -0.434494 , -0.61026 , -0.633186 , 0.34229 , 0.440608 , 0.402551 , 0.673569 , 0.514526 , -0.856812 , 0.685651
1 , 0.667959 , -0.957974 , 0.62727 , 0.979863 , 0.865499 , 0.557579 , -0.877672 , 0.692506 , -0.721827 , -0.917372
2 , 0.335317 , 0.561491 , 0.541486 , 0.457138 , -0.441566 , 0.494272 , 0.318423 , 0.556955 , -0.596321 , 0.669339
3 , 0.418523 , 0.574436 , 0.131578 , 0.86398 , 0.346684 , -0.772167 , -0.945662 , 0.452072 , -0.596771 , 0.636339
4 , -0.324556 , 0.363257 , 0.159802 , -0.662006 , -0.334989 , 0.684298 , 0.526416 , 0.146661 , 0.486416 , 0.239174
5 , 0.115961 , 0.304216 , -0.43321 , 0.496109 , 0.168975 , 0.569762 , 0.490288 , 0.41971 , -0.572967 , 0.123879
6 , 0.695329 , 0.266264 , -0.448932 , 0.966835 , -0.288943 , 0.690475 , -0.801791 , 0.480636 , 0.777148 , 0.489881
7 , 0.520322 , 0.863887 , 0.813041 , 0.608861 , -0.106546 , 0.63639 , 0.36067 , 0.990109 , 0.514033 , 0.826156
8 , -0.982734 , -0.414141 , 0.644155 , -0.491513 , -0.228883 , -0.574505 , 0.716578 , 0.328208 , 0.664677 , -0.683104
9 , 0.650126 , 0.646645 , 0.514148 , 0.418556 , 0.578259 , 0.296054 , 0.36125 , 0.693872 , -0.782767 , 0.909028

t = 5
N_ID / N_ID , 0 , 1 , 2 , 3 , 4 , 5 , 6 , 7 , 8 , 9
0 , -0.434494 , -0.488208 , -0.633186 , 0.273832 , 0.440608 , 0.322041 , 0.673569 , 0.411621 , -0.68545 , 0.685651
1 , 0.667959 , -0.966379 , 0.62727 , 0.98389 , 0.865499 , 0.646063 , -0.877672 , 0.754005 , -0.777462 , -0.917372
2 , 0.335317 , 0.449192 , 0.541486 , 0.36571 , -0.441566 , 0.395417 , 0.318423 , 0.445564 , -0.477057 , 0.669339
3 , 0.418523 , 0.659548 , 0.131578 , 0.891184 , 0.346684 , -0.817734 , -0.945662 , 0.561658 , -0.677417 , 0.636339
4 , -0.324556 , 0.290606 , 0.159802 , -0.529605 , -0.334989 , 0.547439 , 0.526416 , 0.117329 , 0.389133 , 0.239174
5 , 0.115961 , 0.443373 , -0.43321 , 0.596887 , 0.168975 , 0.65581 , 0.490288 , 0.535768 , -0.658373 , 0.123879
6 , 0.695329 , 0.213011 , -0.448932 , 0.773468 , -0.288943 , 0.55238 , -0.801791 , 0.384509 , 0.621718 , 0.489881
7 , 0.520322 , 0.89111 , 0.813041 , 0.687089 , -0.106546 , 0.709112 , 0.36067 , 0.992087 , 0.611226 , 0.826156
8 , -0.982734 , -0.531313 , 0.644155 , -0.59321 , -0.228883 , -0.659604 , 0.716578 , 0.462567 , 0.731742 , -0.683104
9 , 0.650126 , 0.517316 , 0.514148 , 0.334845 , 0.578259 , 0.236843 , 0.36125 , 0.555097 , -0.626213 , 0.909028

t = 6
N_ID / N_ID , 0 , 1 , 2 , 3 , 4 , 5 , 6 , 7 , 8 , 9
0 , -0.434494 , -0.488208 , -0.633186 , 0.219065 , 0.440608 , 0.257633 , 0.538855 , 0.411621 , -0.54836 , 0.685651
1 , 0.667959 , -0.966379 , 0.62727 , 0.787112 , 0.865499 , 0.516851 , -0.702138 , 0.754005 , -0.62197 , -0.917372
2 , 0.335317 , 0.449192 , 0.541486 , 0.292568 , -0.441566 , 0.316334 , 0.254738 , 0.445564 , -0.381645 , 0.669339
3 , 0.418523 , 0.659548 , 0.131578 , 0.912947 , 0.346684 , -0.854187 , -0.95653 , 0.561658 , -0.741934 , 0.636339
4 , -0.324556 , 0.290606 , 0.159802 , -0.423684 , -0.334989 , 0.437951 , 0.421133 , 0.117329 , 0.311306 , 0.239174
5 , 0.115961 , 0.443373 , -0.43321 , 0.67751 , 0.168975 , 0.724648 , 0.592231 , 0.535768 , -0.726699 , 0.123879
6 , 0.695329 , 0.213011 , -0.448932 , 0.818774 , -0.288943 , 0.641904 , -0.841433 , 0.384509 , 0.697375 , 0.489881
7 , 0.520322 , 0.89111 , 0.813041 , 0.549671 , -0.106546 , 0.56729 , 0.288536 , 0.992087 , 0.488981 , 0.826156
8 , -0.982734 , -0.531313 , 0.644155 , -0.674568 , -0.228883 , -0.727683 , 0.773263 , 0.462567 , 0.785393 , -0.683104
9 , 0.650126 , 0.517316 , 0.514148 , 0.267876 , 0.578259 , 0.189475 , 0.289 , 0.555097 , -0.500971 , 0.909028

t = 7
N_ID / N_ID , 0 , 1 , 2 , 3 , 4 , 5 , 6 , 7 , 8 , 9
0 , -0.434494 , -0.390566 , -0.633186 , 0.175252 , 0.352486 , 0.206106 , 0.431084 , 0.329297 , -0.438688 , 0.54852
1 , 0.667959 , -0.973103 , 0.62727 , 0.82969 , 0.892399 , 0.613481 , -0.76171 , 0.803204 , -0.697576 , -0.933898
2 , 0.335317 , 0.359354 , 0.541486 , 0.234055 , -0.353253 , 0.253067 , 0.203791 , 0.356451 , -0.305316 , 0.535471
3 , 0.418523 , 0.727639 , 0.131578 , 0.930358 , 0.477347 , -0.88335 , -0.965224 , 0.649326 , -0.793547 , 0.709071
4 , -0.324556 , 0.432485 , 0.159802 , -0.538947 , -0.467992 , 0.550361 , 0.536906 , 0.293863 , 0.449045 , 0.391339
5 , 0.115961 , 0.554698 , -0.43321 , 0.742008 , 0.33518 , 0.779718 , 0.673785 , 0.628614 , -0.781359 , 0.299103
6 , 0.695329 , 0.370409 , -0.448932 , 0.855019 , -0.431154 , 0.713523 , -0.873146 , 0.507607 , 0.7579 , 0.591905
7 , 0.520322 , 0.912888 , 0.813041 , 0.639737 , -0.285237 , 0.653832 , 0.430829 , 0.99367 , 0.591185 , 0.860925
8 , -0.982734 , -0.62505 , 0.644155 , -0.739655 , -0.383106 , -0.782147 , 0.81861 , 0.570053 , 0.828315 , -0.746483
9 , 0.650126 , 0.613853 , 0.514148 , 0.414301 , 0.662607 , 0.35158 , 0.4312 , 0.644078 , -0.600777 , 0.927223

t = 8
N_ID / N_ID , 0 , 1 , 2 , 3 , 4 , 5 , 6 , 7 , 8 , 9
0 , -0.547596 , -0.390566 , -0.706549 , 0.340202 , 0.352486 , 0.206106 , 0.431084 , 0.463438 , -0.55095 , 0.54852
1 , 0.534367 , -0.973103 , 0.501816 , 0.663752 , 0.892399 , 0.613481 , -0.76171 , 0.642563 , -0.558061 , -0.933898
2 , 0.468253 , 0.359354 , 0.633189 , 0.387244 , -0.353253 , 0.253067 , 0.203791 , 0.485161 , -0.444253 , 0.535471
3 , 0.534819 , 0.727639 , 0.305263 , 0.944286 , 0.477347 , -0.88335 , -0.965224 , 0.719461 , -0.834837 , 0.709071
4 , -0.259645 , 0.432485 , 0.127841 , -0.431158 , -0.467992 , 0.550361 , 0.536906 , 0.23509 , 0.359236 , 0.391339
5 , 0.0927685 , 0.554698 , -0.346568 , 0.593606 , 0.33518 , 0.779718 , 0.673785 , 0.502891 , -0.625087 , 0.299103
6 , 0.556263 , 0.370409 , -0.359145 , 0.684016 , -0.431154 , 0.713523 , -0.873146 , 0.406085 , 0.60632 , 0.591905
7 , 0.616258 , 0.912888 , 0.850433 , 0.71179 , -0.285237 , 0.653832 , 0.430829 , 0.994936 , 0.672948 , 0.860925
8 , -0.986187 , -0.62505 , 0.715324 , -0.791724 , -0.383106 , -0.782147 , 0.81861 , 0.656043 , 0.862652 , -0.746483
9 , 0.520101 , 0.613853 , 0.411318 , 0.331441 , 0.662607 , 0.35158 , 0.4312 , 0.515262 , -0.480621 , 0.927223

t = 9
N_ID / N_ID , 0 , 1 , 2 , 3 , 4 , 5 , 6 , 7 , 8 , 9
0 , -0.638076 , -0.512453 , -0.706549 , 0.472161 , 0.481989 , 0.206106 , 0.431084 , 0.463438 , -0.64076 , 0.54852
1 , 0.627494 , -0.978483 , 0.501816 , 0.731001 , 0.913919 , 0.613481 , -0.76171 , 0.642563 , -0.646448 , -0.933898
2 , 0.374603 , 0.287483 , 0.633189 , 0.309795 , -0.282602 , 0.253067 , 0.203791 , 0.485161 , -0.355402 , 0.535471
3 , 0.627855 , 0.782111 , 0.305263 , 0.955429 , 0.581878 , -0.88335 , -0.965224 , 0.719461 , -0.86787 , 0.709071
4 , -0.407716 , 0.545988 , 0.127841 , -0.544926 , -0.574393 , 0.550361 , 0.536906 , 0.23509 , 0.487389 , 0.391339
5 , 0.0742148 , 0.443758 , -0.346568 , 0.474885 , 0.268144 , 0.779718 , 0.673785 , 0.502891 , -0.50007 , 0.299103
6 , 0.44501 , 0.296327 , -0.359145 , 0.547212 , -0.344924 , 0.713523 , -0.873146 , 0.406085 , 0.485056 , 0.591905
7 , 0.493006 , 0.73031 , 0.850433 , 0.569432 , -0.22819 , 0.653832 , 0.430829 , 0.994936 , 0.538358 , 0.860925
8 , -0.98895 , -0.70004 , 0.715324 , -0.833379 , -0.506485 , -0.782147 , 0.81861 , 0.656043 , 0.890121 , -0.746483
9 , 0.416081 , 0.491082 , 0.411318 , 0.265153 , 0.530086 , 0.35158 , 0.4312 , 0.515262 , -0.384497 , 0.927223

