t = 0
N_ID / N_ID , 0 , 1 , 2 , 3 , 4 , 5 , 6 , 7 , 8 , 9
0 , 0.176641 , 0.166662 , 0.867153 , 0.746178 , 0.0634175 , -0.673208 , -0.158452 , 0.772546 , -0.488754 , 0.576189
1 , 0.126225 , 0.537217 , 0.781976 , 0.734306 , -0.674276 , 0.54384 , 0.491958 , -0.0720237 , 0.253517 , -0.19306
2 , 0.613453 , 0.176641 , 0.920164 , 0.0665914 , 0.396496 , 0.925504 , 0.863247 , 0.301859 , 0.51384 , 0.592151
3 , -0.402722 , 0.0105289 , 0.339671 , 0.765191 , 0.926756 , 0.72866 , 0.204138 , -0.397992 , -0.767418 , -0.555559
4 , -0.546373 , 0.0845058 , 0.277078 , 0.754814 , 0.658162 , -0.937437 , 0.660634 , 0.42027 , -0.594867 , 0.435347
5 , -0.479904 , 0.931761 , 0.150334 , 0.587237 , -0.778466 , 0.121738 , -0.157628 , -0.158361 , 0.847407 , -0.32255
6 , 0.988342 , 0.857143 , 0.723289 , 0.0812098 , -0.771416 , 0.263375 , 0.932646 , 0.861873 , 0.221564 , 0.482925
7 , 0.187109 , -0.381787 , 0.912015 , 0.319956 , -0.39143 , 0.237129 , 0.504044 , 0.654988 , -0.0705283 , 0.400983
8 , 0.176702 , 0.19071 , 0.453169 , 0.397046 , 0.574633 , -0.941557 , 0.490402 , 0.124943 , 0.676015 , 0.766778
9 , 0.28016 , -0.492904 , 0.493942 , 0.556413 , -0.527879 , 0.971892 , 0.0978423 , 0.662893 , 0.764733 , 0.666616

t = 1
N_ID / N_ID , 0 , 1 , 2 , 3 , 4 , 5 , 6 , 7 , 8 , 9
0 , 0.341313 , 0.333329 , 0.893722 , 0.796942 , 0.250734 , -0.738566 , -0.326762 , 0.818036 , -0.591003 , 0.660952
1 , 0.30098 , 0.629774 , 0.825581 , 0.787445 , -0.739421 , 0.635072 , 0.593567 , -0.257619 , 0.402814 , -0.354448
2 , 0.690762 , 0.341313 , 0.936131 , 0.253273 , 0.517197 , 0.940403 , 0.890597 , 0.441487 , 0.611072 , 0.67372
3 , -0.402722 , 0.0105289 , 0.339671 , 0.765191 , 0.926756 , 0.72866 , 0.204138 , -0.397992 , -0.767418 , -0.555559
4 , -0.637098 , 0.267605 , 0.421662 , 0.803851 , 0.72653 , -0.94995 , 0.728507 , 0.536216 , -0.675893 , 0.548277
5 , -0.583923 , 0.945408 , 0.320267 , 0.66979 , -0.822773 , 0.297391 , -0.326102 , -0.326688 , 0.877926 , -0.45804
6 , 0.990674 , 0.885714 , 0.778631 , 0.264968 , -0.817133 , 0.4107 , 0.946117 , 0.889499 , 0.377252 , 0.58634
7 , 0.187109 , -0.381787 , 0.912015 , 0.319956 , -0.39143 , 0.237129 , 0.504044 , 0.654988 , -0.0705283 , 0.400983
8 , 0.176702 , 0.19071 , 0.453169 , 0.397046 , 0.574633 , -0.941557 , 0.490402 , 0.124943 , 0.676015 , 0.766778
9 , 0.424128 , -0.594324 , 0.595154 , 0.645131 , -0.622303 , 0.977514 , 0.278274 , 0.730314 , 0.811786 , 0.733293

t = 2
N_ID / N_ID , 0 , 1 , 2 , 3 , 4 , 5 , 6 , 7 , 8 , 9
0 , 0.47305 , 0.466663 , 0.914978 , 0.837554 , 0.400587 , -0.790853 , -0.461409 , 0.854429 , -0.672803 , 0.728761
1 , 0.30098 , 0.629774 , 0.825581 , 0.787445 , -0.739421 , 0.635072 , 0.593567 , -0.257619 , 0.402814 , -0.354448
2 , 0.690762 , 0.341313 , 0.936131 , 0.253273 , 0.517197 , 0.940403 , 0.890597 , 0.441487 , 0.611072 , 0.67372
3 , -0.522178 , 0.208423 , 0.471737 , 0.812153 , 0.941404 , 0.782928 , 0.363311 , -0.518394 , -0.813935 , -0.644447
4 , -0.637098 , 0.267605 , 0.421662 , 0.803851 , 0.72653 , -0.94995 , 0.728507 , 0.536216 , -0.675893 , 0.548277
5 , -0.667138 , 0.956327 , 0.456214 , 0.735832 , -0.858218 , 0.437913 , -0.460882 , -0.461351 , 0.902341 , -0.566432
6 , 0.990674 , 0.885714 , 0.778631 , 0.264968 , -0.817133 , 0.4107 , 0.946117 , 0.889499 , 0.377252 , 0.58634
7 , 0.187109 , -0.381787 , 0.912015 , 0.319956 , -0.39143 , 0.237129 , 0.504044 , 0.654988 , -0.0705283 , 0.400983
8 , 0.341362 , 0.352568 , 0.562535 , 0.517637 , 0.659706 , -0.953246 , 0.592322 , 0.299954 , 0.740812 , 0.813422
9 , 0.539302 , -0.675459 , 0.676123 , 0.716105 , -0.697842 , 0.982011 , 0.422619 , 0.784251 , 0.849429 , 0.786634

t = 3
N_ID / N_ID , 0 , 1 , 2 , 3 , 4 , 5 , 6 , 7 , 8 , 9
0 , 0.57844 , 0.573331 , 0.931982 , 0.870043 , 0.52047 , -0.832682 , -0.569127 , 0.883543 , -0.738242 , 0.783009
1 , 0.440784 , 0.703819 , 0.860464 , 0.829956 , -0.791537 , 0.708058 , 0.674853 , -0.406095 , 0.522251 , -0.483558
2 , 0.75261 , 0.47305 , 0.948905 , 0.402619 , 0.613758 , 0.952323 , 0.912478 , 0.55319 , 0.688858 , 0.738976
3 , -0.522178 , 0.208423 , 0.471737 , 0.812153 , 0.941404 , 0.782928 , 0.363311 , -0.518394 , -0.813935 , -0.644447
4 , -0.637098 , 0.267605 , 0.421662 , 0.803851 , 0.72653 , -0.94995 , 0.728507 , 0.536216 , -0.675893 , 0.548277
5 , -0.667138 , 0.956327 , 0.456214 , 0.735832 , -0.858218 , 0.437913 , -0.460882 , -0.461351 , 0.902341 , -0.566432
6 , 0.990674 , 0.885714 , 0.778631 , 0.264968 , -0.817133 , 0.4107 , 0.946117 , 0.889499 , 0.377252 , 0.58634
7 , 0.187109 , -0.381787 , 0.912015 , 0.319956 , -0.39143 , 0.237129 , 0.504044 , 0.654988 , -0.0705283 , 0.400983
8 , 0.473089 , 0.482055 , 0.650028 , 0.614109 , 0.727765 , -0.962597 , 0.673857 , 0.439963 , 0.79265 , 0.850738
9 , 0.631442 , -0.740367 , 0.740898 , 0.772884 , -0.758274 , 0.985609 , 0.538095 , 0.827401 , 0.879543 , 0.829307

t = 4
N_ID / N_ID , 0 , 1 , 2 , 3 , 4 , 5 , 6 , 7 , 8 , 9
0 , 0.662752 , 0.658665 , 0.945586 , 0.896034 , 0.616376 , -0.866146 , -0.655302 , 0.906835 , -0.790594 , 0.826407
1 , 0.440784 , 0.703819 , 0.860464 , 0.829956 , -0.791537 , 0.708058 , 0.674853 , -0.406095 , 0.522251 , -0.483558
2 , 0.75261 , 0.47305 , 0.948905 , 0.402619 , 0.613758 , 0.952323 , 0.912478 , 0.55319 , 0.688858 , 0.738976
3 , -0.617742 , 0.366738 , 0.577389 , 0.849722 , 0.953124 , 0.826342 , 0.490649 , -0.614715 , -0.851148 , -0.715558
4 , -0.709679 , 0.414084 , 0.53733 , 0.843081 , 0.781224 , -0.95996 , 0.782806 , 0.628973 , -0.740715 , 0.638622
5 , -0.667138 , 0.956327 , 0.456214 , 0.735832 , -0.858218 , 0.437913 , -0.460882 , -0.461351 , 0.902341 , -0.566432
6 , 0.990674 , 0.885714 , 0.778631 , 0.264968 , -0.817133 , 0.4107 , 0.946117 , 0.889499 , 0.377252 , 0.58634
7 , 0.187109 , -0.381787 , 0.912015 , 0.319956 , -0.39143 , 0.237129 , 0.504044 , 0.654988 , -0.0705283 , 0.400983
8 , 0.578472 , 0.585644 , 0.720023 , 0.691287 , 0.782212 , -0.970077 , 0.739086 , 0.551971 , 0.83412 , 0.88059
9 , 0.631442 , -0.740367 , 0.740898 , 0.772884 , -0.758274 , 0.985609 , 0.538095 , 0.827401 , 0.879543 , 0.829307

t = 5
N_ID / N_ID , 0 , 1 , 2 , 3 , 4 , 5 , 6 , 7 , 8 , 9
0 , 0.730202 , 0.726932 , 0.956469 , 0.916827 , 0.693101 , -0.892917 , -0.724242 , 0.925468 , -0.832475 , 0.861126
1 , 0.440784 , 0.703819 , 0.860464 , 0.829956 , -0.791537 , 0.708058 , 0.674853 , -0.406095 , 0.522251 , -0.483558
2 , 0.75261 , 0.47305 , 0.948905 , 0.402619 , 0.613758 , 0.952323 , 0.912478 , 0.55319 , 0.688858 , 0.738976
3 , -0.694194 , 0.493391 , 0.661912 , 0.879778 , 0.962499 , 0.861074 , 0.592519 , -0.691772 , -0.880918 , -0.772446
4 , -0.709679 , 0.414084 , 0.53733 , 0.843081 , 0.781224 , -0.95996 , 0.782806 , 0.628973 , -0.740715 , 0.638622
5 , -0.733711 , 0.965061 , 0.564971 , 0.788665 , -0.886575 , 0.55033 , -0.568706 , -0.569081 , 0.921873 , -0.653146
6 , 0.992539 , 0.908571 , 0.822905 , 0.411974 , -0.853706 , 0.52856 , 0.956893 , 0.911599 , 0.501801 , 0.669072
7 , 0.349687 , -0.505429 , 0.929612 , 0.455965 , -0.513144 , 0.389703 , 0.603235 , 0.723991 , -0.256423 , 0.520786
8 , 0.578472 , 0.585644 , 0.720023 , 0.691287 , 0.782212 , -0.970077 , 0.739086 , 0.551971 , 0.83412 , 0.88059
9 , 0.705154 , -0.792294 , 0.792719 , 0.818307 , -0.806619 , 0.988487 , 0.630476 , 0.861921 , 0.903635 , 0.863446

t = 6
N_ID / N_ID , 0 , 1 , 2 , 3 , 4 , 5 , 6 , 7 , 8 , 9
0 , 0.784161 , 0.781545 , 0.965175 , 0.933462 , 0.75448 , -0.914333 , -0.779393 , 0.940374 , -0.86598 , 0.888901
1 , 0.552627 , 0.763055 , 0.888372 , 0.863965 , -0.833229 , 0.766446 , 0.739883 , -0.524876 , 0.617801 , -0.586847
2 , 0.75261 , 0.47305 , 0.948905 , 0.402619 , 0.613758 , 0.952323 , 0.912478 , 0.55319 , 0.688858 , 0.738976
3 , -0.694194 , 0.493391 , 0.661912 , 0.879778 , 0.962499 , 0.861074 , 0.592519 , -0.691772 , -0.880918 , -0.772446
4 , -0.709679 , 0.414084 , 0.53733 , 0.843081 , 0.781224 , -0.95996 , 0.782806 , 0.628973 , -0.740715 , 0.638622
5 , -0.733711 , 0.965061 , 0.564971 , 0.788665 , -0.886575 , 0.55033 , -0.568706 , -0.569081 , 0.921873 , -0.653146
6 , 0.994031 , 0.926857 , 0.858324 , 0.529579 , -0.882965 , 0.622848 , 0.965515 , 0.929279 , 0.601441 , 0.735258
7 , 0.47975 , -0.604343 , 0.94369 , 0.564772 , -0.610515 , 0.511762 , 0.682588 , 0.779192 , -0.405138 , 0.616629
8 , 0.578472 , 0.585644 , 0.720023 , 0.691287 , 0.782212 , -0.970077 , 0.739086 , 0.551971 , 0.83412 , 0.88059
9 , 0.705154 , -0.792294 , 0.792719 , 0.818307 , -0.806619 , 0.988487 , 0.630476 , 0.861921 , 0.903635 , 0.863446

t = 7
N_ID / N_ID , 0 , 1 , 2 , 3 , 4 , 5 , 6 , 7 , 8 , 9
0 , 0.827329 , 0.825236 , 0.97214 , 0.94677 , 0.803584 , -0.931467 , -0.823515 , 0.952299 , -0.892784 , 0.911121
1 , 0.642102 , 0.810444 , 0.910697 , 0.891172 , -0.866583 , 0.813157 , 0.791906 , -0.619901 , 0.694241 , -0.669477
2 , 0.802088 , 0.57844 , 0.959124 , 0.522095 , 0.691006 , 0.961858 , 0.929982 , 0.642552 , 0.751086 , 0.791181
3 , -0.755355 , 0.594713 , 0.729529 , 0.903822 , 0.969999 , 0.888859 , 0.674015 , -0.753417 , -0.904735 , -0.817957
4 , -0.709679 , 0.414084 , 0.53733 , 0.843081 , 0.781224 , -0.95996 , 0.782806 , 0.628973 , -0.740715 , 0.638622
5 , -0.786969 , 0.972049 , 0.651977 , 0.830932 , -0.90926 , 0.640264 , -0.654965 , -0.655264 , 0.937498 , -0.722517
6 , 0.995225 , 0.941486 , 0.886659 , 0.623664 , -0.906372 , 0.698278 , 0.972412 , 0.943423 , 0.681153 , 0.788206
7 , 0.47975 , -0.604343 , 0.94369 , 0.564772 , -0.610515 , 0.511762 , 0.682588 , 0.779192 , -0.405138 , 0.616629
8 , 0.662777 , 0.668515 , 0.776018 , 0.75303 , 0.82577 , -0.976062 , 0.791269 , 0.641577 , 0.867296 , 0.904472
9 , 0.764123 , -0.833835 , 0.834175 , 0.854646 , -0.845295 , 0.99079 , 0.704381 , 0.889537 , 0.922908 , 0.890757

t = 8
N_ID / N_ID , 0 , 1 , 2 , 3 , 4 , 5 , 6 , 7 , 8 , 9
0 , 0.827329 , 0.825236 , 0.97214 , 0.94677 , 0.803584 , -0.931467 , -0.823515 , 0.952299 , -0.892784 , 0.911121
1 , 0.713681 , 0.848355 , 0.928558 , 0.912937 , -0.893267 , 0.850525 , 0.833525 , -0.695921 , 0.755393 , -0.735582
2 , 0.84167 , 0.662752 , 0.967299 , 0.617676 , 0.752805 , 0.969487 , 0.943986 , 0.714041 , 0.800869 , 0.832945
3 , -0.755355 , 0.594713 , 0.729529 , 0.903822 , 0.969999 , 0.888859 , 0.674015 , -0.753417 , -0.904735 , -0.817957
4 , -0.767743 , 0.531267 , 0.629864 , 0.874465 , 0.824979 , -0.967968 , 0.826245 , 0.703178 , -0.792572 , 0.710897
5 , -0.829575 , 0.977639 , 0.721582 , 0.864746 , -0.927408 , 0.712211 , -0.723972 , -0.724212 , 0.949998 , -0.778013
6 , 0.995225 , 0.941486 , 0.886659 , 0.623664 , -0.906372 , 0.698278 , 0.972412 , 0.943423 , 0.681153 , 0.788206
7 , 0.47975 , -0.604343 , 0.94369 , 0.564772 , -0.610515 , 0.511762 , 0.682588 , 0.779192 , -0.405138 , 0.616629
8 , 0.730222 , 0.734812 , 0.820814 , 0.802424 , 0.860616 , -0.980849 , 0.833015 , 0.713261 , 0.893837 , 0.923578
9 , 0.811298 , -0.867068 , 0.86734 , 0.883716 , -0.876236 , 0.992632 , 0.763505 , 0.911629 , 0.938326 , 0.912605

t = 9
N_ID / N_ID , 0 , 1 , 2 , 3 , 4 , 5 , 6 , 7 , 8 , 9
0 , 0.827329 , 0.825236 , 0.97214 , 0.94677 , 0.803584 , -0.931467 , -0.823515 , 0.952299 , -0.892784 , 0.911121
1 , 0.770945 , 0.878684 , 0.942846 , 0.93035 , -0.914613 , 0.88042 , 0.86682 , -0.756737 , 0.804314 , -0.788466
2 , 0.873336 , 0.730202 , 0.973839 , 0.694141 , 0.802244 , 0.975589 , 0.955189 , 0.771233 , 0.840695 , 0.866356
3 , -0.804284 , 0.67577 , 0.783623 , 0.923058 , 0.975999 , 0.911087 , 0.739212 , -0.802734 , -0.923788 , -0.854366
4 , -0.814194 , 0.625014 , 0.703891 , 0.899572 , 0.859983 , -0.974374 , 0.860996 , 0.762543 , -0.834057 , 0.768718
5 , -0.829575 , 0.977639 , 0.721582 , 0.864746 , -0.927408 , 0.712211 , -0.723972 , -0.724212 , 0.949998 , -0.778013
6 , 0.99618 , 0.953189 , 0.909327 , 0.698931 , -0.925098 , 0.758623 , 0.977929 , 0.954739 , 0.744922 , 0.830565
7 , 0.5838 , -0.683475 , 0.954952 , 0.651818 , -0.688412 , 0.60941 , 0.74607 , 0.823354 , -0.52411 , 0.693303
8 , 0.730222 , 0.734812 , 0.820814 , 0.802424 , 0.860616 , -0.980849 , 0.833015 , 0.713261 , 0.893837 , 0.923578
9 , 0.811298 , -0.867068 , 0.86734 , 0.883716 , -0.876236 , 0.992632 , 0.763505 , 0.911629 , 0.938326 , 0.912605

